    0.998435   0.00156396  5.47597e-07
     0.99676   0.00324011            0
           1            0            0
    0.998691   0.00130848  7.71066e-07
    0.996686   0.00331268  9.07882e-07
           0            0            1
    0.995836    0.0041633  9.09341e-07
     0.99767   0.00232909   8.5553e-07
    0.997396    0.0026228 -1.89695e-05
    0.982641    0.0173755 -1.62661e-05
           0 -3.20115e-07            1
           0 -3.48438e-07            1
    0.997476   0.00252369            0
           0            0            1
           0 -6.95009e-10            1
           1            0 -2.00714e-06
    0.997772   0.00224721 -1.91096e-05
           0 -7.75138e-10            1
           0            0            1
           0 -4.41662e-07            1
           1            0            0
           0  7.05974e-07     0.999999
    0.990475   0.00952523            0
    0.988696    0.0113216  -1.7406e-05
           0  3.12295e-08            1
    0.999587  0.000413149            0
           1            0            0
           0  1.11283e-07            1
     1.00112   -0.0011192 -1.75508e-06
           0  5.73801e-08            1
    0.992319   0.00768057            0
     1.00002            0 -1.91924e-05
    0.986655    0.0133338  1.09596e-05
     0.99778   0.00222285 -2.42233e-06
           0            0            1
           0 -1.78697e-07            1
    0.987184    0.0128158            0
    0.962263    0.0377491 -1.24747e-05
           0 -7.55633e-10            1
           0  -7.6611e-10            1
    0.997597   0.00240271            0
          -0  -8.9152e-08            1
    0.982801    0.0171989  3.19303e-07
    0.988395    0.0116057  -1.0351e-06
    0.974069    0.0259451 -1.41864e-05
           0 -1.00493e-09            1
    0.989797    0.0101993  4.02667e-06
    0.991692    0.0083097 -1.80033e-06
    0.993069   0.00693409  -3.2904e-06
    0.980735    0.0192654            0
    0.978822    0.0211923 -1.43284e-05
           0 -1.40298e-06            1
    0.966464    0.0335492 -1.34248e-05
           0            0            1
           1            0            0
           0 -1.41376e-06            1
    0.979787    0.0202135            0
          -0 -7.55559e-09            1
 6.13421e-07    0.0209561     0.979043
           0   0.00975693     0.990243
    0.949463    0.0505468 -9.72163e-06
           0  -1.1092e-07            1
           0            0            1
           0            0            1
          -0 -3.50576e-08            1
          -0 -6.67475e-08            1
    0.938714    0.0612924 -6.87242e-06
           0 -3.28545e-10            1
           0 -3.67614e-10            1
    0.984149    0.0158512            0
 7.68094e-07    0.0136218     0.986377
    0.940926    0.0590708  3.50356e-06
           0  2.67185e-07            1
           0 -3.31384e-07            1
    0.991568   0.00845058  -1.8411e-05
           0 -3.59523e-07            1
    0.951522    0.0484864 -8.78085e-06
           0 -3.49703e-07            1
           0 -7.36911e-10            1
    0.957228    0.0427587  1.35086e-05
     0.94055    0.0594311  1.92644e-05
    0.952618    0.0473821            0
    0.916555    0.0834364  8.85211e-06
           0 -4.01013e-07            1
           0 -4.18636e-07            1
           0  -4.1972e-07            1
           0 -4.27818e-07            1
           0 -4.35601e-07            1
           0 -4.31333e-07            1
           0 -4.32694e-07            1
           0 -4.88786e-07            1
           0 -4.95491e-07            1
           0  -1.0141e-09            1
           0 -5.00822e-07            1
           0 -1.01948e-09            1
           0 -1.02075e-09            1
    0.894337     0.105663            0
    0.933457    0.0665291  1.40405e-05
           0  -1.0148e-09            1
           0 -1.02025e-09            1
           0            0            1
           0 -2.89157e-07            1
           0            0            1
    0.926463    0.0735413 -4.70295e-06
           0  1.19787e-06     0.999999
    0.928714    0.0712798  6.56488e-06
           0 -4.20133e-07            1
    0.967705     0.032267  2.76928e-05
    0.911366     0.088607  2.66304e-05
           0 -3.05735e-07            1
           1            0            0
    0.990586   0.00941221  1.37387e-06
           0  6.12358e-08            1
     0.95009    0.0498991  1.08797e-05
           0  5.76859e-08            1
           0  3.73336e-08            1
           0  4.57624e-08            1
 5.95648e-07    0.0398401     0.960159
           0            0            1
           0 -4.26833e-07            1
    0.949165    0.0508069  2.78867e-05
           0 -3.04465e-10            1
           0 -2.87416e-10            1
           0 -2.31256e-07            1
    0.972215    0.0277874 -2.45788e-06
           0            0            1
     0.92376    0.0762438 -3.44148e-06
           0            0            1
           0 -7.10619e-10            1
           0 -3.71801e-07            1
           0 -3.92951e-07            1
           0 -7.45974e-10            1
    0.922486    0.0775137            0
           0 -3.93828e-07            1
     0.90797    0.0920297            0
           0 -7.50426e-10            1
           0 -7.53535e-10            1
    0.916199    0.0838012            0
    0.917124    0.0828449  3.14292e-05
           0 -4.15639e-07            1
     0.94823    0.0517296  4.06219e-05
           0 -4.18291e-07            1
    0.916106    0.0838461  4.83326e-05
    0.914826    0.0851665  7.75532e-06
           0 -1.00529e-09            1
           0 -4.79149e-07            1
    0.913959     0.086037  3.64149e-06
           0 -1.02013e-09            1
    0.908867    0.0911325            0
           0 -3.97618e-07            1
           0            0            1
           0 -4.99184e-07            1
           0  1.01887e-07            1
           0  -1.0897e-07            1
    0.894141     0.105859            0
           0 -6.69612e-07            1
    0.922419    0.0775465  3.48705e-05
    0.916128    0.0838318  3.98682e-05
     0.92133    0.0786292  4.03079e-05
           0   0.00163588     0.998364
           0  2.69532e-07            1
           0  4.45338e-08            1
 3.22314e-06    0.0651829     0.934814
           0            0            1
    0.884695     0.115315 -1.07086e-05
     0.89535     0.104648  2.50459e-06
           0  1.59452e-07            1
           0            0            1
           0            0            1
           0  -4.6929e-07            1
           0            0            1
           0 -1.45236e-07            1
    0.912432     0.087568            0
          -0 -2.74948e-08            1
           0 -2.05016e-07            1
          -0  -3.9991e-10            1
           0            0            1
    0.896052     0.103948            0
          -0 -4.60514e-10            1
     0.88177      0.11823            0
    0.927138     0.072817  4.53667e-05
           0  1.23583e-08            1
           0            0            1
           0 -5.11844e-10            1
           0 -5.45503e-10            1
           0  -6.0521e-10            1
      0.9079    0.0920605  3.91792e-05
           0 -3.70047e-07            1
           0 -7.27499e-10            1
           0 -7.31008e-10            1
           0            0            1
           0 -3.89013e-07            1
           0            0            1
           0  -4.0693e-07            1
           0            0            1
           0 -4.11016e-07            1
           0 -1.01219e-09            1
    0.885552      0.11439  5.77799e-05
          -0 -1.14233e-08            1
           0  -4.8916e-07            1
           0 -1.00615e-09            1
    0.891715     0.108272  1.37587e-05
           0 -5.04338e-07            1
           0 -1.20067e-09            1
           0  -1.0168e-09            1
           0 -1.01249e-09            1
           0 -4.80704e-07            1
           0 -9.95569e-08            1
           0 -1.20925e-07            1
           0 -1.45136e-06            1
           0 -2.22032e-06            1
     0.86857      0.13143            0
           0 -7.89103e-07            1
    0.869495     0.130505            0
-5.56031e-13  0.000242549     0.999757
     0.86864      0.13136            0
           0    0.0638628     0.936137
           0  9.34062e-10            1
    0.915247    0.0846833  7.01763e-05
    0.874882     0.125075  4.27122e-05
           0  1.13308e-07            1
           0  3.78147e-08            1
           0  1.97532e-08            1
    0.869646     0.130331  2.32079e-05
           0  -7.3677e-09            1
           0            0            1
           0            0            1
           0            0            1
           0            0            1
           0 -2.16588e-06            1
    0.867687     0.132264  4.96364e-05
          -0            0            1
           0 -1.23786e-07            1
          -0 -6.73509e-11            1
           0 -1.71244e-07            1
           0            0            1
           0 -9.18105e-10            1
          -0 -2.86819e-08            1
           0 -2.80183e-10            1
           0  -1.0196e-07            1
           0 -7.55478e-10            1
          -0 -4.80575e-10            1
           0 -2.49499e-07            1
           0 -5.85843e-10            1
           0            0            1
           0 -3.90877e-07            1
    0.881234     0.118758  8.45873e-06
          -0 -1.31127e-08            1
           0 -6.36824e-10            1
           0 -6.85638e-10            1
           0 -3.62093e-07            1
           0 -7.27087e-10            1
          -0 -5.99124e-08            1
    0.819006     0.180994            0
           0 -3.79816e-07            1
           0 -3.95446e-07            1
           0  -4.0111e-07            1
           0 -4.01856e-07            1
           0 -4.13032e-07            1
           0  -4.2056e-07            1
           0  -4.9114e-07            1
           0            0            1
           0 -7.71051e-10            1
           0            0            1
           0 -1.00872e-09            1
           0  -1.0114e-09            1
           0 -5.03326e-07            1
           0 -5.04642e-07            1
           0 -5.04665e-07            1
    0.892881     0.107055  6.32809e-05
     0.85468     0.145292  2.78751e-05
           0 -2.38162e-07            1
           0            0            1
           0  8.18754e-07     0.999999
    0.813979     0.186021            0
           0  5.51277e-10            1
           0            0            1
           0            0            1
           0  3.68982e-07            1
    0.818953     0.181047            0
 6.05631e-07    0.0871392      0.91286
           0  4.57285e-09            1
           0            0            1
           0            0            1
           0            0            1
 9.06836e-06    0.0884307      0.91156
    0.858538     0.141423  3.94593e-05
           0    0.0612024     0.938798
           0            0            1
           0  2.74968e-08            1
           0 -7.12061e-10            1
           0  3.84278e-09            1
           0            0            1
           0            0            1
           0            0            1
          -0 -5.11129e-08            1
    0.893121     0.106879            0
          -0            0            1
           0 -1.59623e-07            1
          -0  3.54847e-11            1
          -0 -1.62531e-10            1
    0.883944     0.115968  8.86284e-05
           0 -2.40526e-10            1
          -0 -1.35635e-08            1
    0.837217     0.162773   9.8886e-06
    0.857589     0.142411            0
    0.812595     0.187405            0
          -0            0            1
           0 -2.38865e-07            1
           0 -3.84945e-10            1
          -0 -4.00999e-10            1
    0.809273     0.190727            0
           0 -5.16659e-10            1
           0 -4.99983e-10            1
           0 -3.12843e-07            1
           0  3.38168e-07            1
           0            0            1
           0            0            1
           0  -3.4898e-07            1
           0 -6.61263e-10            1
           0 -6.68464e-10            1
    0.859449     0.140551            0
           0 -3.57499e-07            1
           0 -7.24611e-08            1
           0 -3.67906e-07            1
           0 -3.82952e-07            1
    0.849342     0.150693 -3.48378e-05
           0            0            1
          -0 -6.68932e-08            1
           0 -7.32977e-10            1
           0            0            1
           0 -4.03629e-07            1
           0 -7.36598e-10            1
           0 -4.08099e-07            1
           0 -4.96889e-07            1
           0 -1.00902e-09            1
           0 -1.00856e-09            1
           0  -5.0137e-07            1
           0 -4.92161e-07            1
          -0 -5.53946e-10            1
           0 -1.01546e-09            1
           0 -5.02643e-07            1
    0.860077      0.13984   8.2428e-05
           0 -1.02148e-09            1
           0 -5.03324e-07            1
    0.847675     0.152299  2.60494e-05
           0 -9.55463e-10            1
           0 -5.01656e-07            1
           0            0            1
    0.809611     0.190403  -1.3921e-05
           0   1.1177e-06     0.999999
          -0 -5.13245e-10            1
    0.812893     0.187107            0
           0            0            1
           0  3.67758e-07            1
    0.820889     0.179111            0
           0   -4.752e-07            1
           0    0.0114092     0.988591
           0 -2.45913e-08            1
 6.42479e-06    0.0917703     0.908223
           0  2.44492e-08            1
           0            0            1
           0            0            1
           0 -7.57547e-10            1
          -0 -1.32823e-11            1
           0            0            1
           0            0            1
          -0 -3.71017e-08            1
     0.84676      0.15324            0
           0            0            1
    0.840937     0.159063            0
           0  1.65506e-07            1
           0 -1.14629e-07            1
           0 -8.17403e-10            1
    0.847454      0.15248  6.60244e-05
          -0 -4.40998e-09            1
           0 -1.80373e-07            1
           0 -2.24433e-10            1
          -0 -5.80641e-08            1
           0 -2.19538e-07            1
           0  -3.8868e-10            1
           0 -3.23195e-10            1
           0 -8.73509e-10            1
 2.26744e-07   0.00330602     0.996694
          -0 -4.05834e-10            1
           0 -4.67023e-10            1
    0.804657     0.195352 -8.60249e-06
           0 -1.73006e-10            1
           0 -2.59067e-07            1
           0            0            1
           0 -3.19729e-07            1
           0            0            1
           0 -3.37074e-07            1
           0 -3.25703e-07            1
           0            0            1
           0 -5.87233e-10            1
           0            0            1
           0 -1.34644e-07            1
    0.845627     0.154373            0
           0            0            1
           0 -7.18794e-10            1
           0 -7.15232e-10            1
           0 -3.85955e-07            1
           0  -3.9402e-07            1
    0.841708     0.158289   3.1864e-06
           0 -8.13654e-10            1
    0.833652     0.166282  6.55536e-05
           0  -4.9465e-07            1
           0 -4.88597e-07            1
    0.831821     0.168076  0.000103184
           0  -1.0069e-09            1
           0 -5.04248e-07            1
           0 -5.05242e-07            1
          -0            0            1
           0 -1.01691e-09            1
           0 -3.20538e-07            1
           0 -1.01695e-09            1
           0 -1.01479e-09            1
          -0            0            1
           0            0            1
           0            0            1
           0            0            1
           0  4.73249e-07            1
 1.36961e-07   0.00293308     0.997067
          -0 -1.32918e-10            1
-3.02758e-13   0.00253262     0.997467
           0            0            1
           0   0.00273241     0.997268
           0            0            1
-5.75574e-08      0.02064      0.97936
           0  3.28229e-07            1
           0            0            1
           0    0.0936665     0.906334
           0    2.345e-07            1
           0  1.92311e-07            1
           0  4.36813e-08            1
 1.05964e-05     0.113279      0.88671
    0.824024     0.175886  9.00239e-05
           0   3.3951e-08            1
           0 -3.69882e-07            1
           0    0.0497244     0.950276
           0    0.0032165     0.996784
           0            0            1
           0 -5.91833e-10            1
           0            0            1
           0            0            1
           0            0            1
           0            0            1
           0 -1.57658e-06            1
           0 -1.21725e-06            1
          -0 -1.04717e-08            1
          -0 -1.35997e-10            1
           0 -3.82065e-07            1
          -0            0            1
           0            0            1
          -0            0            1
           0 -9.73749e-10            1
           0   -1.867e-10            1
      0.8089     0.191107 -7.46722e-06
           0  -6.9285e-08            1
    0.809799     0.190214  -1.2277e-05
          -0 -3.31692e-10            1
           0 -1.38161e-07            1
           0            0            1
    0.811649     0.188351            0
           0 -2.86149e-07            1
           0 -2.85161e-07            1
           0 -5.40333e-10            1
           0            0            1
           0 -3.34305e-07            1
    0.779925     0.220075            0
    0.819568      0.18019  0.000241982
           0 -6.47879e-10            1
    0.812978     0.187022            0
           0  -6.7491e-10            1
           0 -3.70733e-07            1
           0  -3.5518e-07            1
           0            0            1
           0 -6.80102e-10            1
           0  -7.0021e-10            1
           0 -3.66565e-07            1
           0 -6.97078e-10            1
           0 -6.81902e-10            1
    0.816088     0.183912            0
           0            0            1
           0 -3.88768e-07            1
    0.826295     0.173695  1.00208e-05
           0 -4.94316e-07            1
           0 -9.88365e-10            1
           0 -1.02055e-09            1
          -0            0            1
     0.81923     0.180751  1.91633e-05
           0 -5.05501e-07            1
           0 -4.92585e-07            1
           0 -1.01223e-09            1
          -0 -1.69958e-08            1
           0  -5.0538e-07            1
          -0            0            1
    0.803344     0.196646  9.96795e-06
           0 -4.93862e-07            1
           0            0            1
          -0            0            1
           0            0            1
           0 -1.77744e-07            1
           0 -1.23255e-07            1
          -0            0            1
           0 -5.25191e-07            1
           0 -9.75183e-10            1
           0 -9.38047e-09            1
           0  4.07543e-07            1
           0  2.37292e-07            1
           0  7.62677e-07     0.999999
           0   7.7646e-06     0.999992
           0            0            1
           0  7.22925e-08            1
           0   0.00499781     0.995002
           0            0            1
           0  2.09879e-07            1
 7.85893e-12   0.00406343     0.995937
           0  9.38937e-08            1
           0 -4.82399e-07            1
           0  4.72114e-08            1
    0.846495     0.153505            0
           0            0            1
           0            0            1
           0   0.00814587     0.991854
           0  9.87783e-09            1
    0.855527     0.144407  6.56802e-05
           0            0            1
           0 -1.82406e-09            1
           0            0            1
           0  8.94514e-08            1
           0            0            1
           0   8.4995e-08            1
           0            0            1
           0            0            1
           0            0            1
           0            0            1
           0 -9.30151e-08            1
           0 -1.24641e-07            1
    0.830987     0.168892   0.00012059
           0 -5.09878e-11            1
    0.818108     0.181815  7.66856e-05
           0            0            1
     0.80381     0.196133  5.73561e-05
    0.767599     0.232401            0
           0   -1.974e-07            1
           0 -1.98545e-10            1
           0 -3.12731e-10            1
           0            0            1
           0 -2.37603e-07            1
           0  -3.6134e-10            1
           0 -1.60781e-07            1
           0 -4.83858e-07            1
           0            0            1
          -0            0            1
           0 -3.86541e-10            1
          -0            0            1
          -0 -4.76524e-10            1
    0.816212     0.183788            0
           0 -2.99553e-07            1
           0 -6.13094e-10            1
    0.805564     0.194436            0
           0 -6.37558e-10            1
           0 -1.63461e-08            1
           0 -6.85538e-10            1
           0 -3.63334e-07            1
           0 -2.25766e-07            1
           0 -3.74567e-07            1
           0            0            1
    0.830538     0.169317  0.000145195
           0 -3.78078e-07            1
           0 -3.91679e-07            1
           0 -3.83885e-07            1
           0 -3.92363e-07            1
           0 -3.96594e-07            1
           0 -3.99988e-07            1
           0  2.19838e-07            1
           0 -4.90463e-07            1
           0 -4.96819e-07            1
           0            0            1
           0 -1.01272e-09            1
    0.776388       0.2229  0.000711414
           0 -4.95556e-07            1
           0 -1.01396e-09            1
           0 -5.04299e-07            1
    0.808008     0.191946  4.64763e-05
    0.777139     0.222861            0
           0 -1.01549e-09            1
           0 -1.02462e-09            1
           0 -5.05938e-07            1
    0.808485     0.191431   8.3676e-05
           0 -1.02434e-09            1
           0  2.63458e-06     0.999997
    0.784006     0.215994            0
    0.818735     0.181242    2.352e-05
           0  2.02848e-07            1
    0.812341     0.187647  1.23233e-05
           0 -1.01367e-09            1
           0 -7.58994e-10            1
           0   0.00766529     0.992335
           0    0.0551387     0.944861
           0  1.04636e-06     0.999999
     0.80425      0.19575            0
 1.34523e-05     0.132144     0.867842
           0  1.45286e-08            1
           0  1.38183e-08            1
           0    0.0252431     0.974757
           0 -5.29121e-08            1
           0   0.00253191     0.997468
           0            0            1
           0            0            1
           0            0            1
           0            0            1
          -0            0            1
           0            0            1
           0  7.71106e-07     0.999999
           0            0            1
          -0            0            1
          -0 -5.87116e-08            1
 9.00336e-09            0            1
           0 -4.78173e-07            1
           0  5.25609e-07     0.999999
           0 -8.86904e-08            1
          -0  -9.4369e-11            1
          -0 -1.09354e-10            1
           0            0            1
          -0            0            1
           0 -9.81081e-08            1
          -0 -4.49745e-08            1
           0            0            1
           0 -1.87968e-07            1
           0  -7.3333e-07            1
    0.777734     0.222266            0
           0            0            1
          -0  -2.7209e-10            1
           0            0            1
 1.75686e-11 -1.57388e-06            1
           0 -2.55413e-07            1
           0            0            1
           0 -2.28621e-07            1
           0 -1.02475e-07            1
           0 -3.10498e-07            1
           0            0            1
    0.792219      0.20781 -2.97668e-05
           0 -3.44663e-07            1
    0.787558     0.212442            0
           0 -3.57798e-07            1
           0 -6.61317e-10            1
           0 -6.60079e-10            1
           0 -2.53646e-08            1
           0 -3.73986e-07            1
           0 -3.76879e-07            1
           0 -2.75938e-08            1
           0 -2.27293e-07            1
          -0 -2.95951e-10            1
           0 -1.01775e-09            1
           0 -1.02102e-09            1
           0 -4.92621e-07            1
    0.770225     0.229775            0
           0 -1.02226e-09            1
           0            0            1
           0 -5.01806e-07            1
           0 -6.98236e-07            1
           0            0            1
           0 -2.68181e-07            1
           0            0            1
           0            0            1
           0 -2.33283e-06            1
           0            0            1
           0  -7.8995e-08            1
           0  8.79836e-11            1
           0  1.41274e-07            1
    0.771701     0.228255  4.45751e-05
 2.99142e-06     0.121234     0.878763
    0.784478     0.215473  4.92333e-05
 5.01355e-06     0.147809     0.852186
 2.02896e-05     0.145373     0.854607
           0  2.28484e-08            1
           0  5.67434e-07     0.999999
 1.62785e-11            0            1
          -0            0            1
          -0            0            1
           0 -5.98711e-08            1
          -0            0            1
           0            0            1
           0 -1.55413e-06            1
          -0            0            1
           0            0            1
          -0            0            1
           0 -3.72294e-07            1
          -0 -6.97326e-08            1
           0            0            1
          -0 -8.22011e-08            1
           0   0.00266533     0.997335
           0 -1.91697e-11            1
           0 -1.20465e-07            1
           0 -1.46903e-07            1
          -0            0            1
           0            0            1
          -0            0            1
           0            0            1
          -0 -4.54503e-10            1
           0 -8.73853e-11            1
          -0            0            1
          -0            0            1
           0 -1.57443e-10            1
           0 -9.40609e-08            1
          -0 -5.62796e-10            1
 3.82979e-11  1.31949e-06     0.999999
           0            0            1
           0 -1.12238e-07            1
          -0 -1.84204e-08            1
           0 -2.69168e-07            1
           0  -2.9202e-07            1
           0 -5.26726e-10            1
           0 -5.60586e-10            1
           0 -1.30891e-07            1
           0 -3.40622e-07            1
    0.773133      0.22687  -2.5252e-06
           0  -5.0143e-07            1
           0 -3.71568e-07            1
          -0            0            1
           0 -3.88445e-07            1
           0  2.33826e-08            1
          -0 -1.61906e-08            1
           0 -4.98844e-07            1
           0 -1.35936e-07            1
           0 -1.01364e-09            1
           0 -5.03314e-07            1
          -0            0            1
           0 -5.04119e-07            1
           0 -5.05936e-07            1
           0 -1.53616e-07            1
          -0            0            1
           0 -5.06011e-07            1
           0            0            1
           0 -5.03468e-07            1
           0 -1.02299e-09            1
           0  -1.1527e-07            1
           0            0            1
           0            0            1
           0 -6.29602e-08            1
           0    0.0339249     0.966075
           0   2.4308e-07            1
           0            0            1
 6.53504e-06     0.126389     0.873604
           0 -2.62077e-07            1
           0 -7.19255e-09            1
           0            0            1
           0 -6.89295e-09            1
           0 -8.77216e-10            1
           0            0            1
           0 -9.09671e-10            1
           0 -2.57607e-07            1
          -0            0            1
          -0            0            1
           0 -2.97343e-08            1
           0 -1.39064e-07            1
           0 -5.57401e-11            1
          -0 -6.54808e-09            1
           0 -4.75078e-07            1
           0            0            1
           0            0            1
           0            0            1
           0 -1.70132e-07            1
 8.92909e-11  5.50023e-07     0.999999
           0 -4.76419e-07            1
           0 -1.18778e-10            1
           0            0            1
           0            0            1
           0 -2.18233e-07            1
           0            0            1
           0  -2.7112e-10            1
           0            0            1
          -0 -4.47257e-10            1
    0.690018      0.30694   0.00304246
           0 -4.71376e-10            1
           0 -4.11769e-07            1
           0 -4.99199e-10            1
          -0 -4.89137e-10            1
           0 -3.25988e-07            1
           0 -8.39458e-10            1
           0 -3.37644e-07            1
           0 -6.39388e-10            1
           0            0            1
           0 -9.74919e-10            1
           0 -3.78789e-07            1
           0 -9.73976e-10            1
           0 -7.92827e-10            1
           0 -3.66432e-07            1
           0 -3.56433e-07            1
           0 -3.78879e-07            1
    0.740391     0.259609            0
           0 -3.71471e-07            1
           0  -4.9604e-07            1
          -0            0            1
          -0            0            1
    0.753239     0.246754  6.29264e-06
           0 -8.99317e-10            1
           0 -4.70726e-07            1
           0   -1.025e-09            1
           0 -9.74603e-10            1
           0 -1.02016e-09            1
 1.84324e-11  -1.3411e-06            1
           0 -1.01883e-09            1
    0.761926     0.238074            0
           0 -1.01483e-09            1
    0.778982     0.221018            0
    0.777607     0.222393            0
           0  5.22264e-08            1
           0            0            1
           0 -2.62357e-09            1
           0 -8.10763e-10            1
           0 -2.34557e-08            1
           0  2.08631e-08            1
           0  4.79137e-08            1
           0 -4.80785e-07            1
           0            0            1
           0            0            1
           0 -6.58602e-08            1
           0            0            1
           0  9.82984e-08            1
           0  2.28997e-07            1
           0            0            1
           0 -2.43776e-09            1
           0            0            1
 6.93531e-06     0.126788     0.873205
           0  2.01826e-08            1
           0  1.11938e-08            1
 1.46661e-06    0.0530776     0.946921
           0  -9.5158e-10            1
           0            0            1
           0  0.000221558     0.999778
    0.672232     0.323617   0.00415103
           0            0            1
    0.739006     0.260094  0.000900015
           0 -4.55839e-07            1
           0            0            1
           0            0            1
           0 -2.37808e-07            1
           0 -4.49039e-07            1
          -0 -3.42066e-08            1
           0 -2.32648e-11            1
           0  -3.9838e-07            1
           0 -9.47972e-10            1
           0            0            1
           0 -7.77906e-09            1
           0            0            1
          -0  6.50069e-09            1
          -0            0            1
 5.86192e-11 -2.13707e-07            1
           0 -1.57148e-07            1
    0.784096     0.215818  8.64387e-05
           0 -6.05103e-09            1
    0.761534     0.238379  8.68278e-05
           0 -2.38444e-11            1
           0 -5.28082e-08            1
           0 -1.85519e-10            1
           0 -1.71679e-07            1
           0 -3.83657e-10            1
           0 -4.69682e-07            1
           0 -4.55801e-07            1
           0 -9.97093e-10            1
           0 -1.91999e-07            1
          -0 -4.65083e-08            1
           0 -2.67533e-07            1
           0 -2.14402e-07            1
           0 -3.90689e-10            1
           0 -5.30206e-07            1
           0  -4.4957e-10            1
           0 -1.00212e-09            1
           0 -2.51412e-07            1
    0.780548     0.219452            0
           0 -2.78794e-07            1
           0  4.33141e-08            1
           0  -3.2272e-07            1
          -0            0            1
           0  -5.6208e-10            1
          -0            0            1
           0 -5.82968e-10            1
          -0            0            1
           0 -5.82211e-10            1
           0            0            1
           0 -3.53099e-07            1
          -0            0            1
           0 -3.49052e-07            1
           0            0            1
           0  -3.4877e-07            1
           0 -3.61812e-07            1
           0 -1.52404e-07            1
           0 -3.56952e-07            1
           0 -3.65218e-07            1
           0  -3.6969e-07            1
           0 -4.95396e-07            1
           0  4.03976e-07            1
           0 -5.00586e-07            1
           0 -5.00568e-07            1
           0 -4.99036e-07            1
           0 -5.04206e-07            1
-1.36005e-11            0            1
           0            0            1
    0.742837     0.257064  9.91528e-05
           0            0            1
           0 -8.46509e-07            1
    0.706964     0.291088   0.00194827
           0 -5.00145e-07            1
           0 -1.00444e-09            1
           0 -1.39729e-06            1
           0            0            1
          -0            0            1
           0  5.59696e-09            1
           0            0            1
           0 -9.01784e-10            1
    0.720641     0.279253  0.000106439
           0            0            1
          -0  5.21626e-11            1
     0.71762      0.28238            0
          -0            0            1
           0    0.0730221     0.926978
           0  4.66686e-08            1
-1.20764e-10            0            1
           0            0            1
 1.87619e-05     0.169115     0.830867
           0            0            1
           0  2.21353e-08            1
 7.50201e-06     0.094406     0.905587
           0  1.01472e-08            1
    0.765446     0.234554            0
-1.01052e-06    0.0306062     0.969395
           0 -1.03928e-10            1
           0 -2.71127e-09            1
           0 -5.27231e-10            1
           0   0.00108875     0.998911
           0  4.62664e-10            1
    0.779359     0.220638  3.29441e-06
           0 -5.46653e-09            1
           0            0            1
           0            0            1
          -0            0            1
          -0 -3.74384e-08            1
          -0 -6.13631e-08            1
          -0            0            1
          -0            0            1
          -0            0            1
           0 -9.86654e-08            1
           0 -2.17663e-11            1
    0.722205     0.276997  0.000797889
          -0 -1.76622e-10            1
           0 -3.58145e-08            1
          -0 -2.20628e-11            1
          -0 -9.74891e-11            1
          -0            0            1
    0.725714     0.274286            0
    0.699812     0.299825  0.000362791
          -0            0            1
           0            0            1
          -0 -1.44052e-10            1
           0            0            1
           0 -1.85685e-07            1
          -0            0            1
          -0 -1.19695e-08            1
           0  -2.0641e-07            1
           0 -1.15534e-07            1
           0            0            1
           0 -8.88064e-10            1
           0 -2.35683e-07            1
           0 -9.90274e-10            1
           0 -2.50366e-07            1
          -0            0            1
 8.02766e-12            0            1
           0 -2.89689e-07            1
           0  7.08313e-10            1
          -0            0            1
           0 -3.10623e-07            1
           0 -3.28756e-07            1
           0 -5.93608e-10            1
           0 -6.30975e-10            1
    0.743136     0.256864            0
           0 -3.46492e-07            1
          -0 -6.87044e-08            1
           0 -3.49953e-07            1
           0 -4.95305e-07            1
           0            0            1
           0 -9.42006e-11            1
    0.780802     0.219198            0
          -0 -7.49846e-08            1
           0            0            1
    0.766717     0.233236  4.69559e-05
           0 -5.01378e-07            1
           0 -1.01793e-09            1
           0 -1.02555e-09            1
           0 -4.95437e-07            1
           0 -8.19725e-10            1
           0 -1.02463e-09            1
           0 -5.04178e-07            1
          -0 -3.57633e-10            1
           0 -4.84746e-07            1
           0            0            1
           0   1.3063e-07            1
           0 -9.11843e-10            1
           0  -8.0054e-10            1
           0            0            1
           0            0            1
           0   2.4728e-07            1
           0 -2.62484e-07            1
           0 -7.82818e-10            1
           0  1.52863e-08            1
           0  2.82322e-08            1
           0  5.74913e-08            1
           0  1.95398e-08            1
          -0 -1.48216e-08            1
           0            0            1
           0            0            1
           0   1.6049e-08            1
           0            0            1
           0  2.41627e-09            1
           0 -4.36592e-09            1
           0            0            1
           0            0            1
           0            0            1
           0            0            1
           0            0            1
           0            0            1
           0            0            1
          -0 -3.47202e-10            1
           0            0            1
           0            0            1
          -0  1.36932e-09            1
          -0 -8.23432e-09            1
          -0 -4.01336e-08            1
          -0  1.86797e-08            1
           0            0            1
    0.746538     0.253424  3.82567e-05
-4.22679e-12            0            1
           0 -1.19555e-07            1
          -0 -2.34864e-09            1
          -0            0            1
           0 -5.78897e-11            1
           0            0            1
          -0            0            1
           0  2.16153e-10            1
          -0 -5.85137e-08            1
           0 -6.94277e-08            1
          -0 -9.80904e-11            1
    0.765944     0.234056            0
           0 -1.97316e-07            1
           0 -2.04742e-10            1
           0 -1.15158e-07            1
           0 -2.80738e-10            1
           0 -6.30875e-10            1
           0 -1.48464e-07            1
           0 -7.37353e-07            1
           0 -9.60789e-08            1
          -0            0            1
          -0            0            1
          -0 -3.32586e-10            1
           0 -1.95089e-07            1
           0 -3.83387e-10            1
          -0 -4.29233e-10            1
           0 -2.46743e-11            1
          -0 -4.55599e-10            1
           0            0            1
           0 -1.24074e-07            1
          -0 -6.41683e-10            1
           0 -5.19067e-10            1
           0            0            1
           0 -3.11234e-07            1
           0            0            1
    0.688841     0.308634   0.00252422
           0 -6.26915e-10            1
           0 -3.21474e-07            1
           0            0            1
           0 -3.33228e-07            1
          -0 -5.21444e-09            1
           0 -3.40627e-07            1
           0 -3.44762e-07            1
           0 -3.53491e-07            1
           0 -3.47142e-07            1
           0 -4.96287e-07            1
           0 -4.97194e-07            1
          -0 -5.44889e-11            1
           0 -1.01953e-09            1
           0 -6.11533e-10            1
           0            0            1
           0 -2.68865e-10            1
           0            0            1
           0 -1.02132e-09            1
           0 -5.01863e-07            1
           0 -3.46201e-07            1
           0 -5.18526e-08            1
          -0  -1.8177e-08            1
           0 -2.38589e-06            1
          -0            0            1
          -0 -5.63302e-10            1
          -0            0            1
     0.69424     0.304951  0.000809849
          -0            0            1
           0 -6.47379e-06      1.00001
          -0 -6.51522e-10            1
           0 -1.13909e-07            1
           0   0.00209729     0.997903
    0.725771     0.274229            0
           0  5.19126e-08            1
    0.740789     0.259181  3.01006e-05
    0.744048     0.255952            0
           0  1.73687e-07            1
           0     0.173369     0.826631
           0     0.180747     0.819253
-6.33948e-06     0.213018     0.786988
           0 -1.43512e-07            1
          -0            0            1
 2.82292e-05      0.20313     0.796842
 1.70643e-05     0.214382     0.785601
           0     0.166358     0.833642
           0   2.8765e-09            1
           0            0            1
          -0            0            1
           0 -2.10954e-07            1
          -0            0            1
           0 -9.93039e-08            1
           0            0            1
           0 -1.01783e-07            1
          -0            0            1
           0            0            1
           0            0            1
           0            0            1
           0            0            1
           0            0            1
           0 -7.04201e-10            1
           0 -7.88589e-10            1
           0            0            1
          -0            0            1
    0.620091      0.37466   0.00524969
          -0  5.42525e-09            1
          -0            0            1
           0 -1.04557e-07            1
           0            0            1
           0 -7.29571e-08            1
           0 -1.16481e-07            1
           0 -1.36655e-07            1
          -0 -9.40995e-11            1
          -0 -5.97842e-10            1
           0            0            1
           0 -1.65836e-07            1
           0 -1.06753e-08            1
          -0 -6.66283e-10            1
          -0            0            1
           0            0            1
           0 -2.52907e-07            1
           0 -8.38421e-10            1
           0 -1.13619e-07            1
    0.729454     0.270418  0.000127914
           0 -1.31387e-07            1
          -0 -2.27325e-10            1
           0 -2.09254e-07            1
           0 -1.51569e-07            1
          -0 -2.98236e-10            1
          -0 -7.58784e-08            1
           0 -1.69898e-07            1
          -0 -3.47642e-10            1
           0            0            1
          -0 -4.04545e-10            1
           0 -2.27314e-07            1
          -0            0            1
           0 -2.29692e-07            1
           0 -4.30789e-10            1
          -0            0            1
           0 -2.80342e-07            1
           0            0            1
           0 -4.84411e-10            1
    0.752116     0.247823   6.0854e-05
           0 -4.47217e-07            1
           0  -3.1799e-07            1
           0 -5.32329e-10            1
           0 -2.97776e-07            1
           0 -5.62669e-10            1
           0  1.31886e-10            1
          -0            0            1
          -0            0            1
          -0            0            1
           0  -3.1093e-07            1
           0 -9.30708e-10            1
           0 -5.70337e-10            1
           0  -6.9345e-10            1
           0 -5.60945e-10            1
          -0 -1.34173e-08            1
           0 -1.02022e-09            1
           0   -1.018e-09            1
           0            0            1
           0 -5.01143e-07            1
           0            0            1
           0 -1.01857e-09            1
           0 -1.02016e-09            1
           0            0            1
           0 -6.07214e-10            1
           0 -8.24675e-10            1
           0 -1.26435e-07            1
           0 -1.55708e-07            1
           0  -2.6057e-08            1
           0            0            1
           0            0            1
           0  0.000331279     0.999669
           0  1.39589e-09            1
           0  -8.5733e-08            1
           0 -1.45873e-07            1
           0 -7.33969e-10            1
           0            0            1
           0            0            1
           0 -8.42244e-08            1
           0 -7.73902e-08            1
           0 -4.74797e-07            1
           0 -4.88559e-07            1
    0.637771     0.362229            0
           0 -7.72944e-10            1
          -0            0            1
           0    0.0449785     0.955022
           0    0.0374078     0.962592
 3.63942e-06     0.069051     0.930945
           0 -8.04524e-10            1
          -0            0            1
          -0            0            1
           0            0            1
          -0            0            1
           0            0            1
    0.750598     0.249134  0.000268495
           0 -7.28084e-10            1
-1.10901e-09  2.63144e-07            1
           0            0            1
           0            0            1
          -0 -6.45197e-10            1
           0            0            1
           0  9.50751e-08            1
           0 -3.03448e-08            1
           0  -2.9499e-09            1
           0            0            1
           0 -4.80566e-07            1
           0            0            1
           0            0            1
          -0            0            1
           0 -4.25173e-10            1
          -0            0            1
          -0 -5.16863e-09            1
           0 -8.36833e-10            1
          -0            0            1
           0 -4.42076e-07            1
           0 -4.80714e-07            1
           0 -1.47707e-07            1
           0    4.115e-07            1
           0 -5.89707e-11            1
    0.554442     0.432097    0.0134606
           0 -5.90193e-11            1
           0            0            1
     0.54747     0.439535     0.012995
           0  -1.0089e-10            1
          -0 -1.43743e-10            1
    0.649733     0.347484   0.00278301
          -0 -9.86317e-11            1
    0.688096     0.310553   0.00135063
           0            0            1
           0            0            1
           0 -4.82109e-07            1
           0            0            1
           0            0            1
          -0 -2.26245e-10            1
           0 -2.13357e-07            1
           0 -8.98487e-10            1
           0            0            1
    0.679422     0.319361   0.00121673
          -0 -3.43921e-10            1
           0 -1.27973e-07            1
           0 -2.45592e-07            1
           0  2.47713e-11            1
           0            0            1
           0 -4.54766e-07            1
           0 -2.52842e-07            1
           0            0            1
           0 -9.20226e-10            1
           0 -7.00973e-08            1
           0 -4.76368e-10            1
          -0            0            1
           0 -5.14188e-09            1
     0.66274      0.33508   0.00217984
           0  -2.9289e-07            1
           0 -4.92696e-10            1
           0 -9.44013e-10            1
           0 -9.89396e-10            1
          -0            0            1
           0 -1.79926e-09            1
           0 -3.14401e-07            1
           0 -3.22973e-07            1
           0 -3.29258e-07            1
           0 -3.26756e-07            1
          -0            0            1
           0 -3.38218e-07            1
    0.734675     0.265325            0
           0 -3.35581e-07            1
          -0            0            1
           0 -7.34977e-10            1
           0 -1.02642e-09            1
           0  -1.0214e-09            1
           0 -1.02497e-09            1
           0 -2.01892e-07            1
           0            0            1
           0  -4.9854e-07            1
           0 -5.02736e-07            1
           0 -5.03234e-07            1
           0 -5.06435e-07            1
           0 -4.97599e-07            1
           0            0            1
-7.72558e-12            0            1
           0            0            1
           0  3.05776e-07            1
           0 -7.02718e-08            1
           0 -2.32588e-06            1
           0            0            1
           0 -1.70298e-07            1
           0 -1.03397e-07            1
          -0 -1.86116e-09            1
           0 -6.11348e-08            1
-1.30536e-05    0.0984861     0.901527
           0 -4.98433e-07            1
           0      0.14915      0.85085
           0  2.01852e-07            1
           0  8.97829e-08            1
           0  1.23068e-07            1
           0 -4.90144e-07            1
           0  6.04167e-09            1
 5.77698e-05     0.260899     0.739044
           0  1.38757e-10            1
           0   6.5919e-09            1
    0.575857     0.418497   0.00564613
           0 -8.01876e-10            1
           0   7.4598e-08            1
           0            0            1
           0            0            1
          -0 -1.81406e-08            1
           0            0            1
           0            0            1
           0            0            1
           0            0            1
           0 -8.67282e-07            1
           0  -1.5037e-07            1
           0 -1.01368e-09            1
          -0 -8.15519e-09            1
           0            0            1
          -0  1.09009e-08            1
          -0            0            1
          -0            0            1
           0  9.53963e-10            1
           0            0            1
           0 -1.95766e-07            1
           0 -1.37987e-07            1
    0.692269     0.307731            0
           0 -1.16276e-07            1
           0            0            1
          -0            0            1
           0            0            1
          -0            0            1
           0 -9.93307e-11            1
          -0 -1.77989e-08            1
          -0 -1.42929e-10            1
          -0 -1.80536e-10            1
           0 -1.33375e-07            1
          -0            0            1
           0            0            1
           0 -2.04328e-07            1
          -0            0            1
          -0 -2.67624e-10            1
          -0 -2.36226e-10            1
           0            0            1
          -0            0            1
           0 -9.55939e-10            1
           0 -1.92957e-07            1
          -0            0            1
          -0            0            1
           0            0            1
           0 -2.80417e-07            1
          -0 -4.17009e-10            1
          -0 -4.40985e-10            1
           0            0            1
           0  7.41995e-09            1
           0            0            1
           0 -4.86545e-10            1
           0 -2.90063e-07            1
           0 -2.96595e-07            1
           0 -5.27149e-10            1
           0 -5.47537e-10            1
           0 -5.37158e-10            1
           0 -3.26908e-07            1
           0 -4.99055e-07            1
           0 -4.98482e-07            1
           0 -5.04362e-07            1
           0 -1.02333e-09            1
           0 -5.06635e-07            1
          -0 -1.46327e-10            1
           0 -1.02667e-09            1
           0 -1.02841e-09            1
    0.516718     0.464734     0.018548
           0            0            1
           0            0            1
    0.628736     0.368109    0.0031555
           0 -7.20652e-07            1
           0            0            1
           0 -1.68736e-07            1
          -0            0            1
           0            0            1
           0 -5.01001e-07            1
           0 -1.96056e-06            1
          -0            0            1
          -0            0            1
           0  1.39167e-07            1
          -0            0            1
           0  8.10064e-09            1
           0     0.263967     0.736033
          -0            0            1
          -0            0            1
           0            0            1
 9.08653e-06     0.258085     0.741906
          -0 -4.52067e-11            1
           0 -1.36623e-07            1
 5.78455e-06    0.0841362     0.915858
           0   0.00386662     0.996133
           0            0            1
           0            0            1
           0            0            1
           0 -4.80933e-07            1
           0            0            1
          -0            0            1
           0  -1.7526e-06            1
           0 -1.86613e-06            1
           0 -4.03949e-10            1
           0            0            1
           0 -1.08401e-06            1
 5.01081e-09            0            1
           0            0            1
           0            0            1
           0            0            1
          -0            0            1
          -0 -2.26671e-10            1
           0 -1.44411e-08            1
          -0            0            1
          -0            0            1
           0            0            1
           0            0            1
          -0 -1.37274e-10            1
           0            0            1
           0 -1.34899e-07            1
           0            0            1
           0 -1.78119e-07            1
           0 -1.35316e-07            1
           0 -3.94541e-07            1
    0.489201     0.479753    0.0310458
           0 -1.96269e-07            1
           0            0            1
           0            0            1
           0 -2.04914e-07            1
    0.501728     0.473829    0.0244438
           0 -1.61752e-07            1
           0            0            1
           0 -2.16363e-07            1
          -0  -2.5579e-10            1
           0            0            1
           0 -3.16238e-10            1
           0 -3.44528e-10            1
           0 -2.67978e-07            1
           0            0            1
           0            0            1
           0 -2.57611e-07            1
           0 -2.82182e-07            1
    0.645985     0.350848   0.00316653
           0 -4.45462e-09            1
           0 -4.54089e-10            1
           0 -4.86888e-10            1
           0  -3.0621e-07            1
           0            0            1
           0  -5.1885e-10            1
           0 -3.35955e-10            1
 1.78199e-13            0            1
           0 -4.98928e-07            1
           0 -2.02185e-08            1
           0            0            1
           0 -5.00668e-07            1
           0            0            1
           0  -5.0518e-07            1
           0  2.23734e-08            1
           0 -5.06907e-07            1
           0 -5.02456e-07            1
           0  0.000562644     0.999437
          -0 -7.16354e-10            1
           0            0            1
           0 -1.13681e-06            1
           0  2.64847e-07            1
           0  1.13566e-06     0.999999
           0            0            1
           0 -8.62793e-10            1
          -0 -3.84026e-10            1
           0 -1.37215e-07            1
           0 -4.25875e-06            1
           0            0            1
    0.650759     0.345845   0.00339616
          -0 -7.30431e-10            1
          -0            0            1
           0 -9.97718e-10            1
           0     0.015862     0.984138
     0.69074     0.308436  0.000824131
           0  -1.1112e-07            1
          -0 -1.55701e-08            1
    0.696423      0.30274   0.00083666
           0 -5.04435e-11            1
           0            0            1
           0 -1.08692e-08            1
          -0            0            1
          -0            0            1
           0   -1.019e-07            1
           0            0            1
           0 -1.08807e-07            1
          -0            0            1
          -0 -8.80424e-11            1
           0  6.97552e-09            1
           0 -1.66912e-09            1
           0            0            1
           0            0            1
           0   0.00188642     0.998114
           0 -1.32943e-07            1
           0            0            1
           0            0            1
           0            0            1
           0            0            1
           0 -5.02776e-07            1
           0            0            1
          -0 -1.57674e-09            1
           0            0            1
           0 -8.62522e-08            1
           0            0            1
           0            0            1
           0            0            1
          -0 -1.80268e-08            1
           0            0            1
-1.30323e-11            0            1
          -0 -9.97449e-09            1
           0 -1.78389e-07            1
          -0 -1.64319e-08            1
           0            0            1
           0 -4.51509e-10            1
           0 -1.76542e-07            1
           0 -1.49892e-07            1
           0            0            1
           0 -1.61231e-07            1
           0  -1.9965e-07            1
           0 -1.55122e-07            1
           0 -4.28194e-07            1
           0 -1.44837e-10            1
          -0 -1.75728e-10            1
           0            0            1
           0 -1.23794e-09            1
          -0 -2.04152e-10            1
           0 -1.52217e-07            1
           0 -1.75863e-07            1
           0            0            1
           0 -1.82947e-07            1
           0 -6.02594e-10            1
          -0 -3.04652e-10            1
           0 -1.97403e-07            1
           0            0            1
           0 -2.45698e-07            1
           0 -2.24347e-07            1
           0 -7.59832e-10            1
          -0 -3.97621e-10            1
           0 -4.25299e-10            1
           0 -2.52668e-07            1
           0 -2.72947e-07            1
           0            0            1
           0 -2.61524e-07            1
           0            0            1
           0 -2.90441e-07            1
           0 -5.09279e-10            1
    0.674271     0.325213  0.000515377
           0 -5.05054e-07            1
           0 -5.05112e-07            1
           0 -1.02456e-09            1
          -0 -1.84535e-08            1
           0 -7.97848e-10            1
           0 -5.03153e-07            1
           0 -6.56951e-08            1
           0  -5.1172e-07            1
           0 -2.56445e-07            1
           0            0            1
    0.692036     0.307964            0
           0 -5.23651e-06      1.00001
           0 -8.25644e-10            1
          -0            0            1
           0            0            1
           0 -2.36279e-07            1
          -0            0            1
           0   0.00339176     0.996608
           0     0.028475     0.971525
           0 -4.07559e-07            1
          -0            0            1
          -0            0            1
          -0            0            1
          -0            0            1
          -0            0            1
           0            0            1
          -0            0            1
           0  1.09421e-07            1
           0  7.01623e-09            1
           0 -4.79637e-10            1
  2.4189e-05     0.280222     0.719754
           0            0            1
           0     0.252754     0.747246
           0     0.208582     0.791418
    0.431954     0.512994    0.0550515
    0.382593     0.538237      0.07917
           0 -2.76332e-07            1
           0            0            1
           0            0            1
           0  2.59495e-09            1
           0            0            1
           0  0.000678032     0.999322
           0    0.0187226     0.981277
           0 -1.22093e-08            1
           0 -2.33063e-07            1
           0 -2.54474e-07            1
           0 -9.20098e-10            1
           0 -9.17612e-10            1
-1.73661e-09            0            1
           0            0            1
          -0  2.01341e-10            1
           0            0            1
          -0            0            1
           0   1.1236e-08            1
           0            0            1
           0  1.07729e-07            1
          -0            0            1
           0 -1.71175e-07            1
    0.583534     0.416338  0.000127886
          -0 -1.91497e-10            1
           0            0            1
           0  -4.3059e-07            1
    0.571857     0.423124   0.00501878
           0 -2.02052e-07            1
          -0 -2.38525e-10            1
    0.638522     0.357123   0.00435479
          -0 -2.61308e-10            1
           0 -2.16668e-07            1
           0 -2.29814e-07            1
          -0 -2.65303e-10            1
           0 -2.03278e-07            1
          -0 -2.96752e-10            1
           0            0            1
           0 -2.14508e-07            1
           0 -6.87544e-10            1
           0            0            1
 3.67499e-06    0.0628273     0.937169
          -0 -3.30402e-10            1
           0  0.000675675     0.999324
           0            0            1
          -0 -3.53162e-10            1
           0 -2.43227e-07            1
           0 -2.41298e-07            1
           0            0            1
           0            0            1
          -0 -3.84421e-10            1
           0 -4.58096e-10            1
           0            0            1
          -0 -4.15492e-10            1
           0 -2.79943e-07            1
     0.55263     0.433102    0.0142681
           0  -5.0049e-07            1
           0  -4.4585e-07            1
           0 -5.53423e-10            1
          -0            0            1
           0 -1.02834e-09            1
           0 -1.02847e-09            1
           0 -1.02349e-09            1
           0 -5.00326e-07            1
           0 -1.02926e-09            1
           0 -1.02012e-08            1
    0.698682      0.30103  0.000288009
    0.675574      0.32286   0.00156595
          -0 -1.76141e-08            1
          -0            0            1
           0            0            1
           0            0            1
           0            0            1
           0 -4.47559e-07            1
           0  2.71483e-05     0.999973
          -0            0            1
           0  1.83629e-07            1
           0 -2.45172e-07            1
          -0            0            1
          -0            0            1
          -0            0            1
           0            0            1
           0            0            1
           0 -4.40873e-07            1
           0 -8.01378e-10            1
           0            0            1
          -0            0            1
           0      0.23279      0.76721
           0 -7.72726e-10            1
           0  -8.6245e-10            1
    0.375457     0.542539    0.0820046
           0            0            1
           0  9.72788e-08            1
           0            0            1
           0            0            1
           0     0.266924     0.733076
           0     0.214689     0.785311
           0 -8.40751e-10            1
           0            0            1
           0  2.53191e-09            1
           0            0            1
           0    0.0207705     0.979229
 8.45552e-06    0.0993706     0.900621
           0            0            1
           0  2.17628e-09            1
           0            0            1
           0 -4.18437e-07            1
    0.471998     0.494077    0.0339248
           0            0            1
           0            0            1
           0            0            1
           0 -4.14305e-07            1
           0            0            1
           0 -1.72047e-07            1
           0 -8.47966e-10            1
           0            0            1
           0            0            1
           0 -8.62809e-10            1
           0            0            1
           0            0            1
           0 -1.98186e-08            1
           0            0            1
           0   0.00691041      0.99309
           0            0            1
           0 -8.68548e-10            1
           0            0            1
           0            0            1
           0 -4.69447e-07            1
    0.483795     0.486517    0.0296879
           0 -4.46775e-07            1
           0 -1.84338e-07            1
          -0 -2.29756e-10            1
           0 -8.85154e-10            1
          -0 -2.35235e-10            1
          -0            0            1
           0 -2.13664e-07            1
           0 -2.24332e-07            1
          -0 -3.06044e-10            1
          -0 -3.53694e-10            1
          -0 -1.57677e-08            1
           0 -2.58448e-07            1
           0 -2.78894e-07            1
 6.51898e-13            0            1
           0 -2.89159e-07            1
           0 -4.76386e-07            1
           0 -5.00161e-07            1
           0   2.4304e-11            1
           0            0            1
           0 -1.03042e-09            1
           0 -1.02811e-09            1
    0.609061     0.383364   0.00757529
           0 -5.04657e-07            1
           0            0            1
           0  3.69228e-07            1
           0 -2.16775e-07            1
          -0            0            1
           0  3.51105e-07            1
           0 -9.45183e-10            1
           0            0            1
           0 -1.49026e-07            1
           0 -2.65515e-07            1
          -0            0            1
           0    0.0593368     0.940663
           0            0            1
           0            0            1
          -0            0            1
           0  0.000645459     0.999355
           0 -4.79791e-07            1
           0            0            1
          -0            0            1
           0  5.52782e-10            1
           0    0.0066332     0.993367
           0            0            1
           0    0.0321407     0.967859
-9.42566e-06    0.0968064     0.903203
 7.94389e-05     0.166153     0.833767
           0   1.5582e-07            1
           0     0.155897     0.844103
           0     0.174344     0.825656
           0            0            1
           0            0            1
           0            0            1
           0  6.48445e-08            1
           0            0            1
           0            0            1
          -0            0            1
           0            0            1
    0.343258      0.55947     0.097272
    0.377564     0.540612    0.0818237
           0    0.0294983     0.970502
           0 -9.80707e-10            1
    0.444977     0.506436    0.0485873
           0            0            1
           0            0            1
           0            0            1
           0            0            1
           0  0.000605839     0.999394
    0.460256     0.498642    0.0411021
    0.422161     0.520326    0.0575133
          -0 -1.77709e-08            1
           0 -6.09346e-07            1
          -0 -1.82369e-08            1
     0.44565     0.506835    0.0475142
           0 -1.25648e-07            1
    0.566874     0.419124    0.0140018
           0            0            1
           0            0            1
           0 -4.72393e-07            1
           0            0            1
           0            0            1
           0  6.06371e-07     0.999999
           0            0            1
          -0            0            1
           0 -2.61743e-07            1
           0 -4.95786e-07            1
           0 -2.69931e-07            1
           0            0            1
           0  4.36201e-08            1
          -0 -1.61537e-11            1
          -0            0            1
           0 -5.02159e-07            1
           0 -1.02704e-09            1
           0 -2.11528e-11            1
           0 -5.07429e-07            1
           0 -1.02555e-09            1
           0  3.62057e-11            1
           0 -1.03032e-09            1
           0 -1.03063e-09            1
           0  5.41328e-08            1
          -0            0            1
           0 -2.58764e-08            1
 6.92365e-13            0            1
           0 -3.02865e-08            1
           0  4.02189e-07            1
           0 -4.09844e-06            1
           0 -5.06634e-08            1
           0  -1.4388e-05      1.00001
           0            0            1
           0  8.25608e-07     0.999999
          -0            0            1
           0 -2.80319e-07            1
           0 -4.90428e-07            1
           0 -4.92373e-07            1
          -0            0            1
     0.70129     0.298687   2.2929e-05
          -0            0            1
           0 -2.21873e-08            1
          -0            0            1
           0 -4.79404e-07            1
    0.623136      0.37568   0.00118416
           0    0.0626655     0.937334
 4.06419e-05     0.288131     0.711828
           0            0            1
           0  4.25534e-08            1
          -0            0            1
           0  2.21142e-08            1
           0 -4.99176e-10            1
          -0 -1.49466e-08            1
           0     0.305411     0.694589
           0  1.92328e-11            1
           0  5.86344e-08            1
           0 -1.59356e-10            1
          -0            0            1
           0            0            1
           0            0            1
          -0 -1.53779e-08            1
          -0            0            1
           0     0.279525     0.720475
          -0            0            1
           0  2.20295e-09            1
           0  6.64599e-08            1
          -0 -1.41449e-10            1
           0            0            1
-1.80125e-11  1.25004e-07            1
           0  2.73078e-07            1
           0 -1.00597e-06            1
           0 -4.80608e-08            1
           0 -7.97455e-10            1
           0  6.75862e-07     0.999999
           0            0            1
           0            0            1
           0  3.45378e-09            1
           0   5.0345e-10            1
          -0            0            1
          -0            0            1
           0   1.4714e-06     0.999999
          -0 -8.89257e-09            1
           0  -5.0753e-07            1
           0 -1.56099e-09            1
           0 -5.03024e-07            1
           0  -5.0926e-07            1
           0 -1.02118e-09            1
           0 -5.07433e-07            1
           0 -1.02661e-09            1
           0            0            1
           0            0            1
           0  -4.9968e-07            1
    0.482744     0.486725    0.0305304
           0 -5.02954e-07            1
           0            0            1
           0 -9.26712e-08            1
           0  1.07381e-06     0.999999
           0            0            1
           0  1.13183e-06     0.999999
           0 -8.61127e-07            1
           0  7.80431e-07     0.999999
           0            0            1
           0 -9.59117e-10            1
           0            0            1
           0            0            1
           0            0            1
-3.53954e-12            0            1
           0            0            1
    0.436904     0.515552    0.0475443
           0  -3.9979e-10            1
           0            0            1
           0 -1.21121e-07            1
           0 -1.01892e-09            1
           0  7.55504e-07     0.999999
           0 -2.15658e-09            1
           0            0            1
           0 -2.64541e-10            1
           0 -1.79826e-07            1
           0 -7.81802e-10            1
           0 -5.01417e-05      1.00005
           0   5.3586e-08            1
           0  2.73217e-09            1
 2.43745e-13            0            1
           0            0            1
           0     0.283927     0.716073
           0  2.02596e-08            1
           0            0            1
 1.43966e-08            0            1
           0    0.0109976     0.989002
-4.51888e-11            0            1
           0  8.80163e-08            1
 6.54945e-06    0.0769607     0.923033
          -0 -2.40731e-10            1
           0 -6.39301e-10            1
           0 -1.18134e-08            1
    0.619757     0.378257   0.00198622
           0            0            1
           0  4.67078e-07            1
           0            0            1
           0            0            1
           0  8.50486e-08            1
           0            0            1
           0            0            1
 4.73241e-13            0            1
           0 -5.71948e-10            1
           0  1.20776e-11            1
           0            0            1
           0            0            1
           0            0            1
    0.633484     0.359957   0.00655855
           0 -5.00831e-07            1
           0 -3.37331e-10            1
           0 -5.06435e-07            1
           0            0            1
          -0 -2.21077e-10            1
           0 -1.04002e-08            1
          -0            0            1
           0  4.67134e-07            1
           0 -9.85523e-08            1
           0 -1.01691e-09            1
           0  4.03058e-08            1
           0            0            1
           0 -2.45466e-07            1
           0  2.43066e-05     0.999976
           0            0            1
           0 -3.71452e-07            1
           0   0.00212731     0.997873
           0            0            1
           0   0.00791533     0.992085
           0 -3.14355e-08            1
           0            0            1
           0            0            1
           0            0            1
           0            0            1
           0            0            1
           0            0            1
           0            0            1
 0.000149545     0.184206     0.815644
           0            0            1
          -0 -3.56008e-08            1
           0            0            1
     0.42306     0.522356    0.0545846
           0            0            1
           0            0            1
          -0 -1.79756e-08            1
           0            0            1
 8.22941e-06     0.137978     0.862014
           0 -7.07925e-11            1
           0            0            1
           0 -1.86851e-07            1
           0            0            1
           0 -1.49335e-07            1
           0  0.000567082     0.999433
 7.10552e-11            0            1
           0            0            1
           0            0            1
           0            0            1
          -0 -5.29736e-08            1
           0 -2.03728e-07            1
 7.84863e-13            0            1
           0 -1.20806e-07            1
           0 -2.35882e-11            1
           0            0            1
           0            0            1
           0            0            1
           0            0            1
           0            0            1
 6.90551e-13            0            1
           0 -4.90321e-07            1
           0 -7.09481e-07            1
           0  -2.3329e-07            1
           0 -5.75779e-10            1
           0 -4.99713e-09            1
           0 -5.08178e-07            1
    0.465599     0.498115    0.0362861
           0 -6.94231e-08            1
  1.0219e-12            0            1
    0.485708     0.483797    0.0304952
           0  2.31046e-06     0.999998
           0 -1.53801e-07            1
          -0            0            1
           0            0            1
           0 -2.92161e-07            1
           0            0            1
          -0 -2.27515e-09            1
           0 -8.62533e-08            1
          -0            0            1
           0            0            1
           0 -1.67366e-07            1
           0    0.0490627     0.950937
  0.00130127     0.257701     0.740997
     0.52511      0.45459    0.0203004
 0.000359491     0.298515     0.701125
          -0 -2.35086e-09            1
    0.605395     0.386133   0.00847209
          -0 -1.35852e-08            1
           0  -9.7638e-10            1
           0 -3.21747e-07            1
           0     0.299976     0.700024
          -0            0            1
           0            0            1
          -0 -6.95401e-09            1
          -0 -1.01051e-09            1
          -0            0            1
           0    0.0468062     0.953194
 6.66314e-06     0.114712     0.885281
           0 -2.58193e-08            1
           0 -1.96817e-07            1
           0            0            1
          -0 -4.23463e-10            1
           0 -8.04181e-08            1
           0  -6.4013e-10            1
          -0            0            1
           0            0            1
           0            0            1
          -0  -8.5848e-10            1
           0            0            1
           0 -3.31805e-10            1
           0            0            1
          -0 -4.91941e-10            1
           0 -9.53296e-08            1
           0            0            1
-1.41871e-11  2.58455e-09            1
           0            0            1
           0            0            1
           0 -1.05294e-07            1
           0            0            1
           0            0            1
           0            0            1
           0 -1.02724e-09            1
           0 -1.00774e-09            1
           0            0            1
           0            0            1
           0 -5.07263e-07            1
           0 -5.09655e-07            1
    0.447943     0.509992    0.0420653
           0            0            1
           0  1.21321e-06     0.999999
           0 -5.38658e-08            1
           0 -3.47783e-07            1
          -0 -4.64611e-08            1
 6.46434e-13            0            1
           0 -4.30882e-10            1
           0            0            1
           0            0            1
           0 -2.57476e-05      1.00003
           0 -8.59487e-08            1
          -0            0            1
           0  9.11084e-07     0.999999
           0 -1.48541e-07            1
           0 -4.90916e-07            1
           0     0.257216     0.742784
  1.0143e-12            0            1
           0 -1.38978e-07            1
  0.00054323     0.320173     0.679284
           0  4.67131e-08            1
-2.50739e-12  2.91637e-09            1
          -0            0            1
           0 -2.87634e-07            1
           0            0            1
           0     0.335238     0.664762
          -0            0            1
 0.000332219     0.331951     0.667716
           0            0            1
           0 -9.87217e-10            1
           0 -7.16109e-10            1
           0            0            1
           0            0            1
           0 -5.33357e-10            1
           0            0            1
           0            0            1
          -0            0            1
    0.561409     0.429827   0.00876318
    0.378298     0.544467    0.0772346
           0 -6.32766e-10            1
           0 -2.50547e-07            1
           0            0            1
           0 -3.15377e-07            1
           0 -7.74421e-10            1
           0            0            1
           0            0            1
           0  1.44197e-09            1
           0   0.00444182     0.995558
           0 -3.33099e-07            1
           0 -1.00533e-09            1
           0            0            1
           0            0            1
 5.73707e-13            0            1
           0            0            1
           0            0            1
           0 -3.90898e-07            1
           0  9.49256e-09            1
           0            0            1
    0.616874      0.38067    0.0024559
           0            0            1
    0.588656     0.400837    0.0105071
           0   -5.049e-07            1
           0 -5.07523e-07            1
          -0            0            1
           0 -1.02402e-09            1
           0 -1.02478e-09            1
          -0            0            1
           0  4.66273e-08            1
           0 -8.67001e-10            1
           0 -4.83156e-07            1
           0  8.54287e-07     0.999999
           0 -2.16867e-06            1
           0 -1.30234e-07            1
           0            0            1
           0  -3.6669e-05      1.00004
           0            0            1
          -0 -1.32717e-08            1
           0            0            1
           0            0            1
           0            0            1
           0  -9.7502e-10            1
           0  -4.3152e-05      1.00004
           0            0            1
           0            0            1
           0 -3.89609e-07            1
           0            0            1
           0 -3.86241e-07            1
           0  3.21219e-07            1
    0.312106     0.569887     0.118007
           0 -7.39075e-10            1
           0 -4.84761e-07            1
           0            0            1
    0.352406     0.559174      0.08842
           0 -5.47197e-08            1
  0.00228912     0.359736     0.637975
          -0            0            1
          -0 -1.84849e-08            1
           0  -3.9652e-07            1
           0 -3.92364e-07            1
           0  1.56842e-08            1
           0 -5.74027e-10            1
           0 -4.69171e-07            1
           0 -4.17023e-09            1
           0 -3.98072e-07            1
-1.54207e-10            0            1
           0 -4.05857e-07            1
           0     0.331665     0.668335
    0.422996     0.526559    0.0504451
          -0            0            1
           0 -4.02937e-07            1
           0            0            1
           0            0            1
           0     0.285389     0.714611
    0.488139     0.484913    0.0269476
 1.54884e-05    0.0598637     0.940121
           0 -8.13441e-10            1
 1.02651e-05    0.0898625     0.910127
           0            0            1
           0            0            1
          -0 -1.45946e-08            1
           0            0            1
           0   -4.046e-08            1
-3.51995e-11            0            1
           0  -7.9186e-08            1
           0 -3.99654e-07            1
           0 -4.31568e-07            1
           0 -4.38412e-07            1
           0            0            1
           0   1.6411e-09            1
           0            0            1
           0 -4.12161e-07            1
           0            0            1
           0            0            1
           0            0            1
           0            0            1
           0  -5.0446e-07            1
           0 -8.08779e-10            1
           0 -3.24335e-07            1
           0 -1.01487e-09            1
          -0            0            1
           0 -5.04836e-07            1
           0            0            1
           0 -4.18229e-07            1
           0  3.20119e-08            1
           0  2.69919e-07            1
           0            0            1
           0            0            1
           0 -9.07326e-10            1
           0 -8.49631e-10            1
    0.598717     0.396442   0.00484034
          -0            0            1
           0 -8.96783e-10            1
          -0            0            1
           0            0            1
           0 -5.02048e-07            1
          -0            0            1
           0 -7.27342e-09            1
           0 -9.23108e-10            1
           0            0            1
          -0            0            1
           0 -9.39663e-10            1
          -0 -1.82786e-08            1
           0  3.71573e-08            1
          -0            0            1
          -0            0            1
          -0            0            1
          -0            0            1
          -0            0            1
           0  5.26641e-09            1
          -0            0            1
           0     0.309258     0.690742
           0 -2.69349e-09            1
           0  9.03896e-09            1
           0 -8.81231e-10            1
           0  5.88445e-10            1
           0  1.08713e-08            1
           0            0            1
           0 -4.46688e-07            1
           0    0.0108928     0.989107
           0 -1.20541e-11            1
           0  1.94734e-10            1
           0 -4.41188e-07            1
           0   0.00970102     0.990299
           0 -9.62953e-10            1
           0 -4.82564e-07            1
           0  6.66088e-07     0.999999
           0            0            1
           0      0.14004      0.85996
           0            0            1
           0            0            1
           0  1.23956e-06     0.999999
    0.287674     0.577944     0.134382
           0 -1.00899e-09            1
           0            0            1
           0   6.4353e-10            1
           0 -4.60399e-07            1
           0 -8.86005e-10            1
           0  8.79243e-09            1
           0            0            1
           0  2.36206e-09            1
           0  -4.5585e-07            1
           0            0            1
           0 -9.81492e-10            1
 5.76794e-12  4.46596e-07            1
      0.3255     0.563639      0.11086
           0 -1.02774e-09            1
           0 -1.02768e-09            1
           0 -5.05008e-07            1
           0            0            1
      0.3364     0.559794     0.103806
           0 -5.09485e-07            1
           0 -5.10017e-07            1
           0  -5.0998e-07            1
           0 -7.32045e-08            1
           0   2.2739e-07            1
          -0 -5.16403e-10            1
           0    1.003e-06     0.999999
           0 -8.84241e-10            1
 9.31868e-13            0            1
           0 -3.42548e-08            1
          -0 -1.71504e-08            1
           0 -9.06076e-06      1.00001
 1.46994e-12            0            1
           0            0            1
           0   -1.007e-09            1
    0.494324      0.48654    0.0191356
           0            0            1
           0 -9.51286e-10            1
           0            0            1
          -0            0            1
           0 -5.05311e-07            1
          -0            0            1
           0            0            1
           0            0            1
           0 -4.70177e-07            1
           0 -4.67789e-07            1
          -0            0            1
           0 -4.69701e-07            1
           0 -4.40148e-07            1
           0 -1.91494e-07            1
           0 -8.89101e-10            1
           0            0            1
           0 -4.16812e-10            1
  0.00227149     0.268918     0.728811
           0    0.0752745     0.924726
           0 -9.78209e-10            1
           0            0            1
           0  2.24889e-08            1
           0            0            1
           0            0            1
           0            0            1
          -0            0            1
           0  1.32422e-08            1
           0 -4.82757e-07            1
-2.63731e-13            0            1
           0 -4.94729e-07            1
           0            0            1
     0.47129     0.493765    0.0349456
           0            0            1
           0  -9.9826e-10            1
           0  4.40503e-09            1
           0  5.47378e-07     0.999999
           0     0.288114     0.711886
           0  1.12089e-09            1
           0            0            1
           0    0.0334219     0.966578
           0 -4.78977e-07            1
  1.0708e-05     0.149591     0.850398
 1.60232e-05     0.195994      0.80399
           0 -9.76869e-10            1
           0            0            1
 6.80605e-13            0            1
-1.59197e-11            0            1
           0 -4.79672e-07            1
           0 -3.49877e-07            1
           0 -4.92558e-07            1
    0.579699     0.412535   0.00776579
           0            0            1
           0 -3.40946e-07            1
           0 -4.09585e-07            1
           0  -4.9682e-07            1
           0 -2.63413e-06            1
           0            0            1
           0            0            1
           0            0            1
           0            0            1
          -0            0            1
           0  8.78813e-08            1
           0 -4.80412e-07            1
           0  2.89481e-07            1
           0  6.51623e-07     0.999999
           0  9.64444e-07     0.999999
           0 -1.80498e-09            1
           0 -8.95961e-10            1
           0            0            1
           0            0            1
           0            0            1
           0 -1.81263e-05      1.00002
           0  9.35874e-08            1
           0 -1.08495e-05      1.00001
           0 -3.02593e-07            1
 1.75853e-11  7.80306e-07     0.999999
           0  5.05088e-07     0.999999
           0  1.22442e-06     0.999999
          -0            0            1
          -0            0            1
           0  -4.7265e-07            1
           0  3.46056e-09            1
          -0            0            1
           0  4.36329e-09            1
           0            0            1
           0 -6.48191e-09            1
          -0            0            1
           0  7.41756e-09            1
           0            0            1
           0     0.156933     0.843067
           0            0            1
-1.79384e-11            0            1
          -0            0            1
          -0 -6.62767e-09            1
           0 -1.01264e-09            1
           0  9.41882e-09            1
           0  3.52052e-09            1
           0 -2.24612e-06            1
           0  7.41769e-09            1
           0 -9.95654e-10            1
           0  6.71021e-09            1
           0  2.82689e-08            1
           0            0            1
           0 -9.24129e-08            1
           0  1.10722e-08            1
           0            0            1
           0            0            1
           0            0            1
           0            0            1
          -0  -1.0973e-08            1
           0  1.00506e-06     0.999999
           0            0            1
           0            0            1
           0 -5.01227e-07            1
           0            0            1
           0 -9.25529e-10            1
           0            0            1
           0 -1.96404e-08            1
          -0 -1.03707e-08            1
           0            0            1
           0            0            1
           0            0            1
           0            0            1
           0            0            1
           0  2.37093e-07            1
           0 -1.01874e-09            1
           0            0            1
           0  3.53114e-09            1
           0  2.67311e-08            1
    0.327775     0.565343     0.106882
           0            0            1
           0            0            1
           0 -3.48366e-07            1
  2.5493e-11 -1.65371e-06            1
 1.28093e-11            0            1
           0            0            1
           0  4.08597e-07            1
           0  1.65306e-07            1
           0            0            1
           0 -1.01926e-09            1
           0 -7.76872e-07            1
           0 -1.00517e-09            1
          -0            0            1
           0 -4.86017e-07            1
           0            0            1
           0  5.18996e-08            1
           0  4.25337e-07            1
    0.337283     0.561088     0.101629
          -0            0            1
           0 -7.35325e-07            1
          -0            0            1
           0            0            1
           0 -1.97028e-06            1
    0.366756     0.550021     0.083223
  0.00522278     0.331687      0.66309
           0            0            1
 3.94712e-13  -1.0894e-08            1
           0   1.6389e-08            1
-0.000110038      0.14819      0.85192
           0 -3.22505e-07            1
 8.03643e-06    0.0354908     0.964501
           0    0.0552821     0.944718
           0            0            1
           0  1.56411e-08            1
           0 -6.10514e-09            1
           0  4.95524e-09            1
 6.64063e-13            0            1
           0  1.36186e-06     0.999999
           0 -5.02777e-07            1
           0 -5.33829e-08            1
          -0            0            1
           0            0            1
           0 -5.02048e-07            1
    0.410432     0.527696    0.0618721
 3.45059e-06    0.0432303     0.956766
           0            0            1
    0.525274     0.454861    0.0198645
           0   0.00100383     0.998996
-3.85587e-13            0            1
           0            0            1
           0  8.46627e-10            1
